layers 4
  thick 0.002 0
  color 255 232 149 255
  mosaic "Trigon of nanites" 2
    regular 9
    star 9 4.1299999999999999 1
    polygon 4
      1 0.36397023426620229
      0.99999999999999944 -0.3639702342662029
      1.7168814171420499 -0.23756469845553974
      1.8793852415718169 0.68404028665133798
    irregular "Girih" 0 -0.28000000000000003 1
  thick 0.050000000000000003 0
  color 20 140 220 255
  mosaic "Trigon of nanites" 2
    regular 9
    star 9 4.1299999999999999 1
    polygon 4
      1 0.36397023426620229
      0.99999999999999944 -0.3639702342662029
      1.7168814171420499 -0.23756469845553974
      1.8793852415718169 0.68404028665133798
    irregular "Girih" 0 -0.28000000000000003 1
  thick 0.060000000000000005 0
  color 0 0 127 255
  mosaic "Trigon of nanites" 2
    regular 9
    star 9 4.1299999999999999 1
    polygon 4
      1 0.36397023426620229
      0.99999999999999944 -0.3639702342662029
      1.7168814171420499 -0.23756469845553974
      1.8793852415718169 0.68404028665133798
    irregular "Girih" 0 -0.28000000000000003 1
  filled true false
  color 0 0 0 255
  mosaic "Trigon of nanites" 2
    regular 9
    star 9 4.1299999999999999 1
    polygon 4
      1 0.36397023426620229
      0.99999999999999944 -0.3639702342662029
      1.7168814171420499 -0.23756469845553974
      1.8793852415718169 0.68404028665133798
    irregular "Girih" 0 2.4200000000000026 1
