layers 3
  interlace 0.029999999999999999 0.050000000000000003
  thick 0.089999999999999997 0
  color 20 140 220 255
  mosaic "Square Wave Zoom" 3
    polygon 4
      -3.1576931321943844 -0.38010167895057939
      -2.3035911659446997 -1.5556721835355256
      -0.92162515469459483 -1.1066442069559406
      -0.92162515469459472 0.34644084905478123
    irregular "Star" 0 1.1599999999999999 1
    regular 4
    rosette 4 0.040000000000000001 2
    polygon 4
      2.7648224396115486 -7.3050648369510736
      4.7362554313011351 -5.7328994881138042
      3.764603809784866 -4.514486892706751
      1.793170818095279 -6.0866522415440203
    irregular "Rosette" 0.040000000000000001 0.76000000000000001 1
  interlace 0 0.050000000000000003
  thick 0.12999999999999998 0
  color 0 0 0 255
  mosaic "Square Wave Zoom" 3
    polygon 4
      -3.1576931321943844 -0.38010167895057939
      -2.3035911659446997 -1.5556721835355256
      -0.92162515469459483 -1.1066442069559406
      -0.92162515469459472 0.34644084905478123
    irregular "Star" 0 1.1599999999999999 1
    regular 4
    rosette 4 0.040000000000000001 2
    polygon 4
      2.7648224396115486 -7.3050648369510736
      4.7362554313011351 -5.7328994881138042
      3.764603809784866 -4.514486892706751
      1.793170818095279 -6.0866522415440203
    irregular "Rosette" 0.040000000000000001 0.76000000000000001 1
  filled false true
  color 255 204 51 255
  mosaic "Square Wave Zoom" 3
    polygon 4
      -3.1576931321943844 -0.38010167895057939
      -2.3035911659446997 -1.5556721835355256
      -0.92162515469459483 -1.1066442069559406
      -0.92162515469459472 0.34644084905478123
    irregular "Star" 0 1.1599999999999999 1
    regular 4
    rosette 4 0.040000000000000001 2
    polygon 4
      2.7648224396115486 -7.3050648369510736
      4.7362554313011351 -5.7328994881138042
      3.764603809784866 -4.514486892706751
      1.793170818095279 -6.0866522415440203
    irregular "Rosette" 0.040000000000000001 0.76000000000000001 1
