layers 6
  thick 0.0050000000000000001 0
  color 255 255 255 255
  mosaic "Girih Star" 3
    regular 10
    star 10 3.3333333333333335 3
    polygon 6
      0.99999999999999978 0.32491969623290617
      0.99999999999999978 -0.3249196962329064
      1.6180339887498947 -0.12410828034667931
      2.2360679774997894 -0.32491969623290662
      2.2360679774997894 0.32491969623290562
      1.6180339887498947 0.12410828034667865
    irregular "Girih" 0 2 1
    polygon 6
      2.6180339887498949 0.85065080835203943
      2.2360679774997894 0.32491969623290562
      2.2360679774997894 -0.32491969623290662
      2.6180339887498945 -0.85065080835204054
      3 -0.32491969623290662
      3 0.32491969623290551
    irregular "Girih" 0 2 1
  interlace 0.029999999999999999 0.050000000000000003
  thick 0.040000000000000001 0
  color 255 255 255 255
  mosaic "Girih Star" 3
    regular 10
    star 10 3.3333333333333335 3
    polygon 6
      0.99999999999999978 0.32491969623290617
      0.99999999999999978 -0.3249196962329064
      1.6180339887498947 -0.12410828034667931
      2.2360679774997894 -0.32491969623290662
      2.2360679774997894 0.32491969623290562
      1.6180339887498947 0.12410828034667865
    irregular "Girih" 0 2 1
    polygon 6
      2.6180339887498949 0.85065080835203943
      2.2360679774997894 0.32491969623290562
      2.2360679774997894 -0.32491969623290662
      2.6180339887498945 -0.85065080835204054
      3 -0.32491969623290662
      3 0.32491969623290551
    irregular "Girih" 0 2 1
  interlace 0.029999999999999999 0.050000000000000003
  thick 0.040000000000000001 0
  color 255 255 255 255
  mosaic "Girih Star" 3
    regular 10
    star 10 3.3333333333333335 3
    polygon 6
      0.99999999999999978 0.32491969623290617
      0.99999999999999978 -0.3249196962329064
      1.6180339887498947 -0.12410828034667931
      2.2360679774997894 -0.32491969623290662
      2.2360679774997894 0.32491969623290562
      1.6180339887498947 0.12410828034667865
    irregular "Girih" 0 2 1
    polygon 6
      2.6180339887498949 0.85065080835203943
      2.2360679774997894 0.32491969623290562
      2.2360679774997894 -0.32491969623290662
      2.6180339887498945 -0.85065080835204054
      3 -0.32491969623290662
      3 0.32491969623290551
    irregular "Girih" 0 2 1
  filled false true
  color 255 255 255 255
  mosaic "Girih Star" 3
    regular 10
    star 10 3.3333333333333335 3
    polygon 6
      0.99999999999999978 0.32491969623290617
      0.99999999999999978 -0.3249196962329064
      1.6180339887498947 -0.12410828034667931
      2.2360679774997894 -0.32491969623290662
      2.2360679774997894 0.32491969623290562
      1.6180339887498947 0.12410828034667865
    irregular "Girih" 0 2 1
    polygon 6
      2.6180339887498949 0.85065080835203943
      2.2360679774997894 0.32491969623290562
      2.2360679774997894 -0.32491969623290662
      2.6180339887498945 -0.85065080835204054
      3 -0.32491969623290662
      3 0.32491969623290551
    irregular "Girih" 0 2 1
  thick 0.089999999999999997 0
  color 0 0 127 255
  mosaic "Girih Star" 3
    regular 10
    star 10 3.3333333333333335 3
    polygon 6
      0.99999999999999978 0.32491969623290617
      0.99999999999999978 -0.3249196962329064
      1.6180339887498947 -0.12410828034667931
      2.2360679774997894 -0.32491969623290662
      2.2360679774997894 0.32491969623290562
      1.6180339887498947 0.12410828034667865
    irregular "Girih" 0 2 1
    polygon 6
      2.6180339887498949 0.85065080835203943
      2.2360679774997894 0.32491969623290562
      2.2360679774997894 -0.32491969623290662
      2.6180339887498945 -0.85065080835204054
      3 -0.32491969623290662
      3 0.32491969623290551
    irregular "Girih" 0 2 1
  filled true false
  color 20 140 220 255
  mosaic "Girih Star" 3
    regular 10
    star 10 3.3333333333333335 3
    polygon 6
      0.99999999999999978 0.32491969623290617
      0.99999999999999978 -0.3249196962329064
      1.6180339887498947 -0.12410828034667931
      2.2360679774997894 -0.32491969623290662
      2.2360679774997894 0.32491969623290562
      1.6180339887498947 0.12410828034667865
    irregular "Girih" 0 2 1
    polygon 6
      2.6180339887498949 0.85065080835203943
      2.2360679774997894 0.32491969623290562
      2.2360679774997894 -0.32491969623290662
      2.6180339887498945 -0.85065080835204054
      3 -0.32491969623290662
      3 0.32491969623290551
    irregular "Girih" 0 2 1
