layers 5
  interlace 0.080000000000000002 0.050000000000000003
  thick 0.15999999999999998 0
  color 20 140 220 255
  mosaic "4.5 square" 2
    polygon 5
      -6.7802205320102873 -11.300367553350489
      -5.5201470213401871 -12.560441064020591
      -3.5201470213401889 -12.560441064020591
      -2.2600735106700882 -11.300367553350492
      -4.5201470213401977 -9.0402940426804008
    irregular "Girih" 0 2.5 1
    regular 4
    star 4 1.3333333333333333 3
  thick 0.039999999999999994 0
  color 20 140 220 255
  mosaic "4.5 square" 2
    polygon 5
      -6.7802205320102873 -11.300367553350489
      -5.5201470213401871 -12.560441064020591
      -3.5201470213401889 -12.560441064020591
      -2.2600735106700882 -11.300367553350492
      -4.5201470213401977 -9.0402940426804008
    irregular "Girih" 0 2.5 1
    regular 4
    star 4 1.3333333333333333 3
  thick 0.14999999999999999 0
  color 61 77 108 255
  mosaic "4.5 square" 2
    polygon 5
      -6.7802205320102873 -11.300367553350489
      -5.5201470213401871 -12.560441064020591
      -3.5201470213401889 -12.560441064020591
      -2.2600735106700882 -11.300367553350492
      -4.5201470213401977 -9.0402940426804008
    irregular "Girih" 0 2.5 1
    regular 4
    star 4 1.3333333333333333 3
  thick 0.16999999999999996 0
  color 0 170 255 255
  mosaic "4.5 square" 2
    polygon 5
      -6.7802205320102873 -11.300367553350489
      -5.5201470213401871 -12.560441064020591
      -3.5201470213401889 -12.560441064020591
      -2.2600735106700882 -11.300367553350492
      -4.5201470213401977 -9.0402940426804008
    irregular "Girih" 0 2.5 1
    regular 4
    star 4 1.3333333333333333 3
  interlace 0.18000000000000002 0.050000000000000003
  thick 0.15999999999999998 0
  color 118 150 209 255
  mosaic "4.5 square" 2
    polygon 5
      -6.7802205320102873 -11.300367553350489
      -5.5201470213401871 -12.560441064020591
      -3.5201470213401889 -12.560441064020591
      -2.2600735106700882 -11.300367553350492
      -4.5201470213401977 -9.0402940426804008
    irregular "Girih" 0 1.25 1
    regular 4
    star 4 1.3333333333333333 3
