layers 4
  interlace 0.040000000000000001 0.050000000000000003
  thick 0.059999999999999998 0
  color 20 140 220 255
  mosaic "zoom 2" 3
    polygon 4
      -1.9315047710066257e-16 -1.0514622242382672
      0.61803398874989457 -0.8506508083520401
      0.99999999999999989 -0.32491969623290656
      -5.5511151231257827e-17 2.7755575615628914e-17
    irregular "Intersect" 0 0.55000000000000004 1
    polygon 6
      0.55963302752293553 -2.1620366327313918
      1.1776670162728304 -2.3628480486176175
      1.5596330275229355 -2.4869563289642969
      1.7957010050227251 -2.1620366327313905
      1.559633027522936 -1.8371169364984845
      1.1776670162728307 -1.9612252168451634
    irregular "Girih" 0 1.4199999999999999 1
    regular 5
    star 5 1.6666666666666667 3
  thick 0.11 0
  color 0 0 0 255
  mosaic "zoom 2" 3
    polygon 4
      -1.9315047710066257e-16 -1.0514622242382672
      0.61803398874989457 -0.8506508083520401
      0.99999999999999989 -0.32491969623290656
      -5.5511151231257827e-17 2.7755575615628914e-17
    irregular "Intersect" 0 0.55000000000000004 1
    polygon 6
      0.55963302752293553 -2.1620366327313918
      1.1776670162728304 -2.3628480486176175
      1.5596330275229355 -2.4869563289642969
      1.7957010050227251 -2.1620366327313905
      1.559633027522936 -1.8371169364984845
      1.1776670162728307 -1.9612252168451634
    irregular "Girih" 0 1.4199999999999999 1
    regular 5
    star 5 1.6666666666666667 3
  filled true false
  color 255 204 51 255
  mosaic "zoom 2" 3
    polygon 4
      -1.9315047710066257e-16 -1.0514622242382672
      0.61803398874989457 -0.8506508083520401
      0.99999999999999989 -0.32491969623290656
      -5.5511151231257827e-17 2.7755575615628914e-17
    irregular "Intersect" 0 0.55000000000000004 1
    polygon 6
      0.55963302752293553 -2.1620366327313918
      1.1776670162728304 -2.3628480486176175
      1.5596330275229355 -2.4869563289642969
      1.7957010050227251 -2.1620366327313905
      1.559633027522936 -1.8371169364984845
      1.1776670162728307 -1.9612252168451634
    irregular "Girih" 0 1.4199999999999999 1
    regular 5
    star 5 1.6666666666666667 3
  filled false true
  color 153 51 0 255
  mosaic "zoom 2" 3
    polygon 4
      -1.9315047710066257e-16 -1.0514622242382672
      0.61803398874989457 -0.8506508083520401
      0.99999999999999989 -0.32491969623290656
      -5.5511151231257827e-17 2.7755575615628914e-17
    irregular "Intersect" 0 0.55000000000000004 1
    polygon 6
      0.55963302752293553 -2.1620366327313918
      1.1776670162728304 -2.3628480486176175
      1.5596330275229355 -2.4869563289642969
      1.7957010050227251 -2.1620366327313905
      1.559633027522936 -1.8371169364984845
      1.1776670162728307 -1.9612252168451634
    irregular "Girih" 0 1.4199999999999999 1
    regular 5
    star 5 1.6666666666666667 3
